-0.49634510281244876,-0.17781731678359466,0.16618491022217824,0.14172018504348746,0.48394922861076733,1.1231959352632428,2.7654347773549928,0.6528101261801014,1.0328014876855236,0.10814178722332897,0.03719128707155378,-0.1723011092384454,0.11423803903534718,0.03988307973828507,0.7722956138548643,1.0060118901090727,1.0236982506727212,0.11087153755467515,0.07587393412098044,0.8461736969272542,0.22920362488909446,0.255920190159276,1.8435454693559747,0.45124968749681166,-1.42008204741471,-1.6452809985186843,-4.498914688859439,0.7433502384389894,-0.8346368817524983,-0.570453888440553,-1.4599585494021448,-2.1642611205272306,-0.8827788945683775,-0.043141862504568314,-1.6926016223649467,0.6778132810349222,0.09008696374510204,-0.5929674426295286,-0.8265905666545579,-0.39784349174968403,-1.51981023465238,-1.854583878750106,-0.43413771984930455,-1.0675284334168091,-0.8104078983942734,-1.8280571311561484,-0.8577031430983573,-2.3125371649120106,-0.9532124181335012,-0.7094430474206322,-0.8670570563533752,0.32602484979578944,4.154933650404028,0.26546144503708674,-0.015536792435549897,0.009067061105528138,0.0005791090553352345
-1.3855098336509055
